2
conv1_b 1 64 0.076866396 0.037046578 0.1407393 -0.030844873 0.028608022 -0.0007730295 0.0069584325 0.06905411 0.061802913 0.05062791 0.010964563 -0.016732613 0.09454721 -0.043603893 0.03467365 0.03338851 -0.09723837 -0.019002322 -0.06101266 -0.012209339 0.033629514 0.020181006 0.04545096 0.026398683 0.021735793 0.006422913 -0.008349267 -0.0036182601 0.038848996 0.03560409 -0.014173883 -0.040783368 -0.021271788 0.033059876 0.08142551 0.036222138 -0.07718732 0.072630644 -0.046410967 0.029766126 -0.049501672 0.041474827 -0.090877935 0.050146077 -0.0043378137 -0.06393832 0.0040533915 -0.061555687 -0.03073784 -0.005451265 0.020835461 0.037945557 -0.027284607 0.056144785 0.08122827 -0.036082275 -0.0055548595 -0.02033941 0.016891679 0.063329965 0.03545308 -0.07537475 0.0116230445 0.08845057
conv1_w 1 1728 -0.0045986357 0.03237871 0.025962817 -0.005693261 0.026995083 0.041803278 -0.019415334 0.014875842 0.009115471 -0.038635764 -0.018668912 -0.016051799 -0.04201021 -0.024276355 -0.0063815163 -0.030485494 -0.015959365 -0.0009699434 0.013480486 0.014967019 0.021119105 -0.008675821 0.015498799 0.020525414 0.009785991 0.00508652 0.026868269 -0.049668208 -0.06542204 -0.038947877 -0.009871457 -0.008996401 -0.003772727 0.05661118 0.06914929 0.04824831 -0.05990055 -0.068607405 -0.028800227 0.011447652 0.0016584919 -0.002420009 0.05080223 0.06014626 0.03948348 -0.04197794 -0.044955887 -0.033343002 0.0032082156 0.0073227813 -0.0018746022 0.042254638 0.045766912 0.023474136 -0.0036251023 -0.027588667 -0.014216149 -0.03213628 -0.065211274 -0.032632507 -0.0030165312 -0.022305131 0.0010756582 0.02575237 0.045883026 0.023874056 0.022073174 0.041927863 0.0339561 0.016945912 0.030132418 0.019999856 -0.010121821 -6.904652e-07 -0.027237263 0.0003139259 0.0050875344 0.0023521413 -0.018394915 0.0072446824 -0.011758019 -0.007100455 -0.013544122 -0.001553455 -0.0110177295 -0.018721106 0.008765917 0.0048517277 -0.008133795 0.011321936 -0.009770415 -0.007975313 0.003258553 -0.018371664 -0.02023962 -0.0074467547 -0.015995791 -0.014181435 0.0011021553 -0.0018050242 -0.0070556225 -0.00312464 0.000711037 -0.010573529 0.0015816343 -0.0022221003 -0.0011128808 -0.00249707 0.022943327 0.0045743315 -0.0034466784 0.025554707 -0.033789143 -0.042894986 0.017504994 -0.015116742 -0.019894773 0.024575138 0.0019436793 -0.0024005012 0.05955955 0.006693432 -0.035207532 0.050598033 -0.0026408187 -0.01957257 -0.009920876 -0.0066854903 -0.0035636732 0.035214573 -0.008314672 -0.029480798 0.0111714285 -0.0010579382 -0.015521314 -0.030985098 -0.016316187 -0.010863455 0.0035280518 0.029417615 -0.017091947 0.017006716 0.04891251 -0.0057272846 -0.03724993 -0.030016247 -0.030074734 0.01579572 0.024832599 -0.020851828 0.025340913 0.05622704 -0.018342022 -0.009700686 -0.0027091545 -0.012603447 0.023708798 0.038383078 -0.014106168 -0.011450041 0.017889626 -0.02154973 -0.0026294158 0.077521004 0.053937368 -0.021485468 -0.038346473 0.020890571 -0.016992817 -0.052600637 -0.01110767 -0.022132188 0.016385453 -0.026137816 0.022435255 -0.029352726 -0.019727947 0.060826115 -0.021410674 -0.0035172803 -0.05367484 0.0026615625 -0.038919196 0.028322067 -0.001380913 0.013508453 0.03971943 0.005853446 0.021019014 0.040740233 0.01585588 0.0055101714 0.049296547 -0.0073302956 -0.038565524 0.02395381 -0.037326053 -0.06507829 0.041243676 0.031001685 0.0011743824 0.06504341 0.011415275 -0.031213 0.022512037 -0.04095921 -0.075616114 0.0147561645 0.020369582 0.0029168883 0.040531445 0.0069294977 -0.019464787 0.0058639613 -0.04044877 -0.05219283 -0.025575873 -0.04392932 0.0005006564 -0.010154705 -0.0113507155 -0.0085478015 0.04983518 0.0502401 0.0118651 -0.052232035 -0.052184723 -0.008042366 0.007859249 -0.001695003 -0.006714561 0.05091206 0.05649753 0.0078977365 -0.031933807 -0.029248789 0.009779916 0.009080441 0.0021633445 -0.0052993014 0.019991275 0.02940873 -0.0076137725 -0.026117396 0.029605713 -0.047829144 -0.00044779023 0.13256143 0.009924466 -0.041995622 -0.022945283 -0.029224591 -0.03129721 0.02212843 -0.07396588 -0.014992629 0.12715967 -0.0037004042 -0.030184524 0.0004753603 -0.00837989 -0.0074832058 0.014890997 -0.028329423 -0.022985509 0.08520727 0.010524291 -0.023167314 -0.017784301 -0.0071376693 -0.014485066 -0.0054722275 0.0065130824 -0.009214764 0.0147182625 -0.010830406 0.00909598 0.022606106 -0.016163003 -0.052241195 -0.020349177 0.00011133971 -0.009369393 0.04233692 0.023180356 -0.002830915 0.047793888 -0.0018806359 -0.037039336 -0.009932827 0.030010153 -0.013372143 0.023279421 0.018347953 -0.027190853 0.008734968 -0.016440192 -0.0010534092 -0.013600013 0.008706992 -0.03301402 -0.048819494 -0.018412858 -0.034664504 -0.029728336 0.0110493265 0.039495476 0.024593927 0.010268953 0.04238433 0.037663177 0.009698207 0.01959323 0.03187421 0.03487186 -0.010035748 -0.021332221 -0.027618704 0.0036719297 0.0011265335 -0.016630126 -0.0121106785 -0.0017238006 -0.002458427 -0.016654467 -0.011469092 0.01691099 -0.00095346203 0.005735649 0.0010665221 0.009229991 -0.01130489 -0.002873478 -0.020084918 0.0148720965 -0.001523759 0.025920328 0.04323761 -0.00036191536 0.016611082 -0.0010341542 -0.03724953 -0.010594891 0.023885613 0.016561247 0.027334007 0.036462624 0.0013156028 -0.0024309831 -0.010916133 -0.041914433 -0.010271112 -0.008927534 -0.004197556 -0.0002576042 0.022842078 0.011235984 -0.01699979 0.008603243 -0.0054446226 0.019404866 -0.0038739268 0.0149986595 0.016398827 0.002151405 -0.0069893827 0.008946742 0.002182989 -0.006227685 0.014773969 -0.027102869 0.0078119407 -0.000791308 -0.024928715 -0.023010883 0.0123634115 -0.009893136 -0.0016721006 -0.010545853 -0.065032 -0.04389891 -0.0045342757 -0.084479004 0.004268879 0.096536376 0.042743452 0.06406027 0.037830155 0.03590197 0.03898331 -0.012724193 -0.06456937 0.045279916 -0.017702445 -0.04995179 -0.014080259 0.02868052 0.028731694 0.011019984 0.0044259834 -0.040431187 0.030265411 -0.013940354 -0.028981011 -0.013222129 0.022539224 -0.0049051433 0.013379402 -0.058131583 -0.052919116 0.023209602 0.0031470892 0.026009843 0.03489463 0.004670898 -0.0010603091 0.026076209 -0.060505677 -0.05102921 0.036785476 -0.01583575 0.022099702 0.030520681 0.002056245 -0.0011809241 -0.011077714 -0.03933223 -0.02011342 0.02382491 0.0093213525 0.03359931 0.006393312 0.010638108 0.02440101 -0.015466441 0.0018738876 0.023953766 -0.0062912726 0.04400251 0.0046540047 -0.028182646 -0.011106059 0.006538367 -0.044601347 -0.0011113965 0.00078415475 -0.031960007 0.05439312 -0.018292729 -0.04426823 0.002136992 0.010186569 -0.018614246 0.006822476 0.008869923 -0.014195546 0.06255431 0.0024992723 -0.024477502 -0.025863966 -0.021393536 -0.022039974 0.0004664236 0.02479895 0.0020821427 0.0015413451 0.027594337 -0.008949306 0.023023019 0.0059749233 0.025758058 0.015885474 0.010885767 0.010761316 0.03177198 0.028007189 0.02368615 -0.010012283 -0.039417792 -0.0039536012 -0.035088535 -0.043313004 -0.02118338 -0.005141183 -0.015263909 0.009092745 -0.0051700473 0.016381111 0.0040653213 0.0059589418 0.03563167 -0.014338956 -0.045733996 -0.013588764 -0.011985012 0.023481073 0.013338081 -0.0044533624 0.035527874 0.033548076 -0.030092465 0.005742502 0.010365888 0.0065571982 0.007898515 -0.01141697 0.0109640425 -0.014479981 -0.03488197 -0.025576577 -0.0017620188 -0.012717972 0.016102495 -0.021806978 -0.007429838 -0.010397351 0.02222644 0.028316174 -0.018266018 0.0123642115 0.018596878 -0.009592539 -0.023643186 -0.024787176 -0.019931301 0.04091103 0.018069183 -0.037251387 0.027177589 0.012592783 -0.02151672 -0.009997518 -0.005868371 -0.0146248555 0.030076586 0.032110468 -0.008870284 0.0089523345 0.010827645 -0.029086418 0.018108433 0.025816979 0.025843043 -0.0047728014 -0.004324429 0.028918667 -0.031366847 -0.046787225 0.00088397955 0.030930735 0.030444797 -0.0043540886 -0.0026409999 -0.0043784436 0.0053201956 -0.032268602 -0.0464599 -0.02642225 0.04760918 0.052045606 0.0027052788 0.0050948453 0.0065213027 0.0040035057 -0.01878478 -0.049445737 -0.020840367 -0.06504963 -0.03233701 0.001437841 -0.0441189 -0.016185632 0.000878842 0.005784974 0.0140278805 0.010053153 -0.028053934 0.020856028 0.03915594 0.00088661234 0.046858437 0.0383018 0.036689818 0.045531075 0.027826859 -0.028616177 -0.01481805 0.004714519 -0.025951952 -0.011463949 -0.008002143 0.0018025873 0.002411708 -0.018884104 -0.023845341 -0.03475129 -0.070652805 0.043859612 0.019653957 -0.04199612 0.06934297 0.051690932 -0.0071158255 -0.033144325 -0.046534017 -0.06579688 0.03748506 0.017191518 -0.028793013 0.07182703 0.051530775 -0.0050439932 -0.016993277 -0.025814286 -0.045412928 0.029909434 0.017079277 -0.02673942 0.034403272 0.036979564 -0.006371416 0.031366643 0.0016411094 -0.01942316 0.014169123 0.0070639784 0.009122093 -0.025003446 -0.052073956 -0.019198546 0.026704587 0.031880513 -0.0074099563 0.03755228 0.06431911 0.039054908 -0.016289338 -0.01837667 0.012799442 -0.01951301 -0.01958438 -0.027056614 -0.021901473 -0.002899402 0.0149269765 -0.030190302 -0.031904586 0.023885673 -0.07581031 -0.037227288 0.0021468569 -0.007873329 0.10925044 0.06924239 -0.04472396 -0.007764143 0.009121783 0.0039311578 -0.02765907 -0.024471028 0.027558902 0.06824812 -0.012626716 0.009560842 -0.017628672 -0.025016358 0.04187868 -0.015669232 0.002592813 0.028363993 0.0072772875 -0.029248822 0.016781904 -0.041416697 -0.030367643 -0.03042469 -0.0027682849 0.07820293 -0.04061221 0.0025031634 0.015630757 -0.03165644 -0.003906815 -0.027109979 -0.014199867 -0.024824418 0.007945146 0.028385783 0.05308455 -0.009039929 0.031140324 0.044593498 -0.047738295 0.0021495828 -0.036013782 0.011008065 0.010512956 0.012817174 -0.024565818 0.02065364 0.027060207 -0.052027397 -0.010484651 -0.08996853 -0.034162246 0.028624438 -0.026798759 -0.04553516 0.066485025 0.058937207 0.016840797 0.02259515 -0.017138805 0.042437557 0.01883233 0.0029232837 0.0068146493 -0.013707465 0.021689966 -0.0102343755 0.014201273 -0.00805634 0.05550699 -0.0076295594 -0.013324487 0.0073993406 -0.057589743 -0.020356515 -0.011966889 -0.008374122 -0.019609934 -0.041785516 0.035965737 -0.025674524 -0.0086490745 0.053991407 0.00012309448 0.025689958 0.024748586 0.04988127 0.022183701 0.0021539254 -0.029395405 0.020334827 -0.045066234 -0.06273882 0.007030997 -0.019423408 0.019779569 -0.015895914 -0.004182925 -0.015775384 0.022985645 -0.0127493255 -0.0140828695 0.039079078 0.010150215 0.004022341 0.03823828 -0.042648297 -0.14709048 0.012785874 0.057182506 0.021078993 0.06050918 0.054290917 0.030630521 0.030357359 0.007986277 -0.13958225 0.0018181572 0.017257873 -0.022491818 0.0054096505 0.013494693 0.017489778 -0.017206132 0.022997666 -0.08186226 0.002384885 0.025103893 0.012580471 0.0038057463 -0.025803586 0.042761926 0.033097215 0.00032036504 0.053022098 -0.011883991 -0.034191184 -0.018694753 -0.041400816 -0.07155723 -0.01013905 -0.017513331 0.048752397 0.093037814 -0.034720782 0.030281872 0.019713204 -0.035252713 -0.062947735 -0.010935803 -0.00069568254 0.01800971 0.055476494 0.00064864673 -0.007993427 0.011613467 -0.020244075 -0.025561454 -0.035156127 -0.011724053 -0.032944422 -0.05228946 -0.021378485 -0.022255916 -0.026833335 -0.0056943665 0.017603109 0.010894884 0.020507138 0.044348244 0.040873654 0.04968802 0.04003078 0.035725936 0.039674476 -0.022397775 -0.020488732 -0.019275637 0.007013953 0.0073034633 -0.0070510046 -0.0048363516 -0.0082223695 -0.0060451142 -0.014301222 -0.012368486 0.023063429 -0.016720455 -0.04475908 -0.012015822 -0.025700519 -0.040256053 -0.005189149 0.019284636 0.018631754 0.005390638 0.061858047 0.03784846 2.6927417e-05 0.033708725 0.019384895 0.01098244 -0.02353519 -0.023103977 -0.023084793 0.021284908 0.0228512 -0.017053245 -0.0002938257 -0.006065626 -0.03380823 -0.026323503 -0.0015575637 0.005341691 -0.023058008 0.01061607 -0.010684418 -0.040024284 -0.02041653 -0.01609663 0.028769916 0.049588237 0.021819746 0.041166082 0.072627805 0.029810844 0.029892644 0.03358029 0.021977393 -0.012044382 -0.025095418 -0.015398356 -0.034430977 -0.031922247 -0.045600902 -0.01164338 -0.027076889 -0.027369246 -0.015897028 -0.027766554 -0.012325535 -0.019247279 -0.022840142 -0.019162448 -0.0030404802 -0.0069032833 0.00390706 0.051446024 0.05950032 0.04583292 0.05205936 0.06442102 0.036766153 0.04123191 0.043723334 0.031097375 -0.020939082 -0.033785492 -0.028518654 -0.032292705 -0.04676395 -0.04195559 -0.034024447 -0.029063454 -0.03676525 -0.0049166433 -0.0058255633 -0.006617852 -0.0049566207 -0.018084085 -0.011825394 0.013983506 -0.003196936 -0.0070745195 0.04260746 0.0493469 0.04171425 0.033947114 0.058250178 0.041298825 0.028431972 0.050993465 0.028282123 -0.035914876 -0.049724888 -0.040302344 -0.046179615 -0.04173487 -0.028931636 -0.026648063 -0.029131629 -0.012253556 -0.054682385 -0.030340923 -0.0046750633 -0.050867867 -0.05982759 -0.029701568 -0.040054943 -0.042517338 -0.013003498 -8.616848e-05 0.027157173 0.028544905 0.02579067 0.04273292 0.02914307 0.04120169 0.040840726 0.029393608 -0.019078005 0.017503114 0.002032768 0.014958241 0.035749935 0.011506034 0.007101102 0.015250814 0.0035905773 -0.05148477 -0.03410851 -0.009149494 0.0048717204 0.024429996 -0.01041902 0.029247709 0.042246323 -0.026724227 -0.05007047 -0.01699129 0.009574905 0.022292856 0.065997414 0.011573522 0.026754329 0.038279194 -0.03057286 -0.048221312 -0.02395865 0.004523025 0.0030822614 0.04004654 0.0059108343 -0.009655541 0.017913401 -0.02980779 0.017528431 0.02388023 -0.04840281 0.06479882 0.04611922 -0.05772769 0.041613426 0.017215298 -0.07343705 0.005488726 -0.002025235 -0.060705777 0.05455658 0.02073523 -0.05600597 0.04602355 0.008304583 -0.057207856 0.010251759 0.020574193 -0.013939504 0.033633694 0.01964198 -0.034508668 0.016314726 0.0056281025 -0.03985214 0.008398033 0.032586288 0.017723152 0.0048583294 0.030007817 0.014080272 -0.019550154 -0.013819547 -0.009501858 0.006414658 0.009736038 -0.011057415 0.018851059 0.021108327 0.0016347081 0.0029526963 -0.00060440187 0.009968686 -0.0036943902 0.0072806533 -0.013727065 0.0012690604 0.025245035 0.0073466883 -0.007165241 -0.012637579 -0.009475929 0.01924255 0.02736003 0.007514415 0.042046912 0.06668089 0.033121057 0.013280434 0.030157795 0.009665441 0.00943996 0.004289223 0.0044308454 0.0031331663 0.0066348813 0.0048432355 0.018078178 -0.0011041759 0.013592168 -0.021222157 -0.04104363 -0.007928932 -0.04035033 -0.061263144 -0.038268924 -0.030701678 -0.040924825 -0.021278601 -0.02302268 -0.014977343 -0.029806295 0.04571532 0.0676357 -0.0059977514 -2.8065893e-05 0.02257242 -0.024243716 0.0050249128 -0.023000138 0.0088310065 0.0027632082 0.004893233 -0.01834836 -0.016160484 -0.0037093242 0.0007882463 0.010080479 -0.007579406 0.042998847 -0.021465676 -0.016381731 -0.014431122 -0.016103528 -0.016373383 0.024555307 -0.016245231 -0.0020054237 0.011652995 0.0013016986 0.040512472 -0.0010036221 -0.006529029 0.00060889823 -0.033840586 -0.05548424 -0.021664314 -0.010351056 0.016165191 0.054242473 -0.0068251956 0.028027406 0.04311503 -0.042403594 -0.045067392 -0.0036785433 0.0023289113 0.016679382 0.05275699 0.008585549 0.008950695 0.014489958 -0.035762787 -0.0012755983 -0.011506274 -0.04095117 -0.005127157 0.008126418 0.029430969 -0.00124001 0.03998229 0.050295774 0.049737964 0.028545523 -0.006332665 -0.0047231787 -0.010882089 0.004618544 -0.08066748 -0.053448334 -0.010777309 0.058387175 0.030574134 0.002605344 0.0032978929 -0.0028001948 -0.001414666 -0.049999297 -0.033937782 -0.007409142 0.039335046 -0.03856909 0.040291637 -0.029210225 -0.13481167 0.02435857 0.024261817 0.04722919 0.048747342 0.060696296 -0.058445707 0.038044605 0.011575471 -0.14963125 0.015582259 0.029159794 0.0203877 -0.00021477291 0.04339547 -0.027223311 0.0142034665 0.014906511 -0.08620931 0.022747455 0.006156465 0.03420426 -0.013977001 -0.047819648 -0.035033904 -0.011573154 0.012847315 0.022831783 -0.020756105 0.03781297 0.051516328 -0.018336058 -0.05825647 -0.02759549 -0.014118727 0.019946378 0.040069465 -0.02371587 0.042043608 0.05575493 -0.034250062 -0.045333095 -0.00728968 0.010511145 0.012060597 0.04320174 0.0008820729 0.0047444436 0.019645264 -0.038159948 0.028104095 0.046676997 0.024773035 0.021339035 0.03621737 0.005059412 -0.032593302 -0.028858595 -0.034605633 -0.031729046 -0.04048002 -0.04415235 -0.027616946 -0.03481167 -0.035693444 0.008541414 -0.016451424 -0.0008670475 -0.01278373 0.0008795281 0.0008795453 0.0115248 0.02112425 0.030594662 0.022865253 0.024744537 0.04412375 -0.022473924 -0.007372444 -0.010585169 0.010524308 0.00056296255 0.009444575 0.0141053945 0.020674013 0.014198128 -0.020013401 -0.017641248 -0.025160052 -0.026688268 -0.03429666 -0.021373527 -0.03426569 -0.033764016 -0.0335571 0.02810028 0.04058163 0.018676516 0.035998765 0.025964571 0.031574097 0.019167248 0.009195615 0.010805222 0.010202062 -0.028230114 -0.013606951 0.02976881 -0.028082741 -0.052547302 0.027999496 -0.012682182 -0.021742532 0.015426804 0.005894158 0.024720307 0.049339116 0.0057003614 -0.007557089 0.032530002 0.016334971 0.016330715 -0.03512034 -0.032049667 0.01164516 0.0022980447 -0.026594562 -0.017072199 0.002843449 0.0066701863 0.002129536 -0.019044435 -0.044468075 -0.016924875 -0.030536901 -0.02832195 -0.02850522 0.021270735 0.06934839 0.053969063 0.03633164 0.0038994784 -0.007033446 -0.005669784 0.020916311 -0.0256553 -0.017768264 0.04689415 0.0018838381 0.031012168 0.020098073 0.004552576 -0.015300799 0.011896627 -0.011760448 -0.05640559 0.012854881 -0.017475726 0.013511366 0.009238485 0.02580952 -0.0142827295 -0.00039016714 -0.0021499367 -0.0092603285 -0.03125125 0.0047464776 -0.025251806 -0.004316331 -0.034240607 0.029456187 0.0713764 -6.1372404e-05 0.0057986234 0.0007245278 -0.021832785 -0.029962199 -0.018378386 -0.002120149 -0.0023863441 0.04457571 0.008888761 -0.009810236 -0.006780911 -0.0012925369 -0.049195282 -0.06268401 -0.0075204642 -0.027142549 -0.015008545 0.0061914334 0.037182916 0.050046425 0.033977486 -0.038164027 -0.041987184 -0.011228423 -0.006465427 0.013475961 0.015549166 0.039015133 0.05967248 0.02763435 -0.041522063 -0.053832844 -0.014856783 -0.001957739 -0.0006372202 0.0004199669 0.030154964 0.03840229 0.01701446 -0.010775511 -0.029993065 -0.021066513 -0.015873473 -0.04142723 -0.041706037 -0.0036054817 -0.01622243 -0.033314496 0.04249798 0.04700645 0.057601433 0.053175155 0.048126586 0.039764028 0.034381926 0.044939585 0.027829438 -0.028501483 -0.03350097 -0.014137471 -0.021486253 -0.020092135 -0.01524128 -0.016343223 -0.010735155 -0.0041078427 -0.005789724 -0.034832694 -0.030255198 0.011614391 -0.022587603 -0.038913686 0.0025332842 0.009185021 -0.0076102386 0.016494548 -0.0011781541 0.0061610765 0.044470727 0.026703114 -0.015614247 0.03790997 0.04338604 0.010885306 -0.010076816 -0.03183367 -0.027169187 0.013272221 -0.0032379173 -0.035073716 0.013686762 0.018515334 -0.009807402 0.0006737322 0.023973793 0.03319677 -0.051517546 -0.036048617 0.03927189 -0.011512984 -0.026468938 0.017468102 0.003963188 0.055422746 0.042392157 -0.04461502 -0.0065070186 0.03926915 -0.027618134 -0.04213392 -0.0046204035 -0.012033695 0.032666106 0.011407252 -0.024666348 -0.0077814613 0.02263947 0.0014621343 -0.022542438 -0.0042076814 -0.06286442 -0.054311723 -0.02160083 -0.019131493 0.007873923 0.014060726 0.04389315 0.060167413 0.047239523 -0.07639782 -0.06732305 -0.017266423 -0.013135155 0.015513749 0.020915266 0.035844803 0.059755795 0.0233025 -0.050775126 -0.03811311 -0.008795477 -0.008988541 0.0145213995 0.02166663 0.025945634 0.033829413 0.020360794 0.0160413 0.03480543 0.028117726 -0.004710507 0.038115494 -0.010134032 -0.049008172 -0.0250186 -0.04063641 -0.019681245 -0.0162706 -0.023509083 0.032383088 0.043738455 -0.0161296 0.026497995 0.046958607 0.014925035 -0.033578493 -0.058673672 -0.04275233 0.0017035955 -0.016799737 -0.03988365 0.03304705 0.02128333 0.01891081 -0.021053137 -0.001383826 0.0134263495 -0.02833216 0.04438359 0.025876341 -0.03688801 0.010804349 -0.0014011635 -0.021969702 -0.023886232 -0.030382188 -0.0018130259 0.04646083 -0.0043264087 0.01443697 0.04705103 -0.0005899455 0.01567496 -0.011095133 0.00056487974 -0.019635713 0.013800951 0.0008517629 -0.017332578 0.0036116017 -0.015780121 -0.034093633 -0.06440659 -0.039542582 -0.021435462 0.0027222706 -0.0019396115 -0.00020185251 0.047308758 0.024210827 0.0030041083 -0.019245809 -0.000902717 0.019341491 0.017991275 0.0034147867 0.016006965 0.050541986 0.0080697285 0.004552332 -0.03653382 -0.022823267 0.017009096 0.015091732 -0.0072169513 -0.00090388523 0.026990794 -0.004683323 -0.01960313 0.032651067 -0.020170929 -0.039184432 0.051867597 0.007715293 -0.012430555 0.0026787517 0.007365468 -0.015658174 0.020299898 -0.035334706 -0.04120354 0.03563933 0.008663408 0.004545164 0.0016389315 0.012115723 0.010375781 0.020643666 -0.01798666 -0.03418708 0.026064185 0.00082133105 0.002038372 -0.005635767 0.0009133466 -0.023143029 -0.046694066 -0.035495386 -0.038636345 -0.048820645 -0.04510666 -0.01547321 -0.032901365 -0.017369825 0.013371821 0.006185457 -0.013155955 0.04914574 0.03441674 0.0022597979 0.04187613 0.03634516 0.0010454679 0.014854552 0.0027048185 -0.015287212 0.045917425 0.04508745 0.005117728 0.03059697 0.031812925 0.00154802 0.029432768 -0.0072516776 -0.051564977 0.05279351 0.011684907 -0.051182486 0.057561353 0.006396449 -0.052749164 0.027702596 -0.02161867 -0.05530752 0.07552667 0.006973247 -0.05740416 0.074456535 0.012366227 -0.05108318 0.011451825 -0.022070104 -0.048386447 0.0479267 0.012643132 -0.038453754 0.052631255 0.016327582 -0.035338234 0.024973735 0.015036203 0.043750253 0.0021183207 -0.0320448 -0.028000675 -0.027295878 -0.055890176 -0.03558335 0.029686255 0.02079664 0.03385792 0.061079465 0.016435035 -0.009171729 0.02023041 -0.0018586116 0.0055808863 -0.020812893 -0.028756546 0.001168386 0.0102223335 -0.022503719 -0.027966663 0.012101908 -0.008985578 -0.0012514525 -0.019592589 -0.024073726 -0.02309837 -0.031241862 0.022865629 -0.018976158 -0.004263476 0.028586302 0.0078658555 0.0037985414 0.015137343 -0.011490986 -0.0015259595 0.078737654 0.0068861544 -0.013614368 0.048808277 0.00047915656 0.01040724 0.0027847188 -0.0016926535 -0.025027262 0.03315081 -0.020087333 -0.029162176 -0.003534851 -0.036209192 -0.026332542 -0.033333603 -0.027376525 -0.04402949 -0.065023705 -0.042488452 -0.00466819 -0.032189008 -0.010403422 0.031437024 0.051890433 0.0378825 0.03158809 0.048553787 0.044027988 0.02870836 0.02142675 0.032163385 -0.007897467 0.012422899 -0.0071281516 -0.0034294403 0.023683 0.0023341335 -0.012046468 -0.008524598 -0.019183986
